digraph Tree {
node [shape=box, fontname="helvetica"] ;
edge [fontname="helvetica"] ;
0 [label="X[2] <= 2.45\ngini = 0.665\nsamples = 120\nvalue = [40, 43, 37]"] ;
1 [label="gini = 0.0\nsamples = 40\nvalue = [40, 0, 0]"] ;
0 -> 1 [labeldistance=2.5, labelangle=45, headlabel="True"] ;
2 [label="X[3] <= 1.75\ngini = 0.497\nsamples = 80\nvalue = [0, 43, 37]"] ;
0 -> 2 [labeldistance=2.5, labelangle=-45, headlabel="False"] ;
3 [label="X[2] <= 5.35\ngini = 0.159\nsamples = 46\nvalue = [0, 42, 4]"] ;
2 -> 3 ;
4 [label="X[3] <= 1.65\ngini = 0.087\nsamples = 44\nvalue = [0, 42, 2]"] ;
3 -> 4 ;
5 [label="X[2] <= 4.95\ngini = 0.046\nsamples = 42\nvalue = [0, 41, 1]"] ;
4 -> 5 ;
6 [label="gini = 0.0\nsamples = 40\nvalue = [0, 40, 0]"] ;
5 -> 6 ;
7 [label="X[3] <= 1.55\ngini = 0.5\nsamples = 2\nvalue = [0, 1, 1]"] ;
5 -> 7 ;
8 [label="gini = 0.0\nsamples = 1\nvalue = [0, 0, 1]"] ;
7 -> 8 ;
9 [label="gini = 0.0\nsamples = 1\nvalue = [0, 1, 0]"] ;
7 -> 9 ;
10 [label="X[0] <= 5.8\ngini = 0.5\nsamples = 2\nvalue = [0, 1, 1]"] ;
4 -> 10 ;
11 [label="gini = 0.0\nsamples = 1\nvalue = [0, 0, 1]"] ;
10 -> 11 ;
12 [label="gini = 0.0\nsamples = 1\nvalue = [0, 1, 0]"] ;
10 -> 12 ;
13 [label="gini = 0.0\nsamples = 2\nvalue = [0, 0, 2]"] ;
3 -> 13 ;
14 [label="X[2] <= 4.85\ngini = 0.057\nsamples = 34\nvalue = [0, 1, 33]"] ;
2 -> 14 ;
15 [label="X[0] <= 6.05\ngini = 0.5\nsamples = 2\nvalue = [0, 1, 1]"] ;
14 -> 15 ;
16 [label="gini = 0.0\nsamples = 1\nvalue = [0, 1, 0]"] ;
15 -> 16 ;
17 [label="gini = 0.0\nsamples = 1\nvalue = [0, 0, 1]"] ;
15 -> 17 ;
18 [label="gini = 0.0\nsamples = 32\nvalue = [0, 0, 32]"] ;
14 -> 18 ;
}